3 32
minecraft:dirt -0.020986663 0.03625163 -0.014062363 -0.015764525 -0.008488399 0.012503499 -0.010280066 0.0022655942 0.0006674308 0.042031173 -0.022277122 0.007752702 -0.033957783 0.0071711917 -0.03840774 -0.020917542 -0.016478488 0.019771397 0.017097112 -0.025570177 0.04711459 0.012365632 -0.005523689 0.02006681 0.04279679 -0.037419233 0.007141876 -0.05131885 -0.0084282225 0.03421378 -0.0058992812 0.03283428
minecraft:air 0.037779544 -0.021477902 0.04816179 -0.010904176 -0.041104164 0.033446915 -0.034460653 0.024999082 -0.037835643 0.04392323 0.023796216 -0.0027120688 -0.042438876 0.042754512 0.047121644 0.0023873213 0.0017826082 -0.019237936 0.011532598 -0.009395159 -0.033553287 0.010285514 -0.0492752 -0.01851252 0.024895636 -0.010749277 -0.0020973552 -0.009136859 -0.049873836 -0.028410034 -0.030096378 -0.011258642
minecraft:sandstone 0.023272635 -0.030024556 0.04124722 -0.003823904 0.040488776 -0.03516513 -0.014108471 -0.03453374 -0.015789568 -0.029100336 -0.026127888 0.041752346 0.029800214 0.03192281 0.039576326 0.012600034 0.004022387 -0.016569102 -0.025705285 0.034033466 -0.004235933 -0.030015633 -0.03553182 -0.03167183 -0.048820984 -0.009013306 -0.038278792 -0.029670317 -0.0250888 0.00608617 0.011237993 0.010344429
