25 32
minecraft:stone -0.39884725 -0.26530692 0.29845652 -0.42477453 -0.34389108 0.46240115 0.5058934 -0.35270777 0.4596774 0.45471466 0.31520534 -0.35079375 -0.33152854 0.44574425 0.39195597 0.36012745 -0.44607648 -0.28042826 -0.33442008 0.39674526 0.15867403 -0.33183914 0.39753357 -0.42844906 -0.27941978 -0.41186655 0.41465297 0.4815899 0.48564732 -0.33966246 0.22465207 0.44992396
minecraft:diorite -0.6014618 0.24927263 0.40648335 -0.5661691 -0.30092585 -0.21485782 0.7023233 0.22519267 0.4293835 0.634505 0.30927062 -0.10959086 0.40898868 -0.0441753 0.5651034 0.54810715 -0.6912866 0.3127243 -0.5665703 0.617155 0.3529112 -0.3585785 0.30213022 -0.43714982 -0.36042258 -0.5755219 0.06282975 0.31793952 -0.1991041 -0.04780023 0.25466305 0.5972748
minecraft:granite -0.37456316 0.30230966 0.38942504 -0.35206965 -0.43007448 0.23369496 0.45353436 -0.48016423 -0.10260091 0.684613 0.18234494 -0.41320556 -0.498074 0.71788657 0.42543325 0.57716286 0.03588967 0.05448375 -0.49486637 -0.1718845 0.3536058 -0.4193333 0.5237366 -0.20938882 0.51343954 0.29382583 -0.11812461 0.6332861 0.66359377 0.011378473 0.25797457 0.451302
minecraft:air -0.35015243 -0.37420672 0.37617162 -0.1954948 -0.2891997 0.35934523 0.24073784 -0.43288812 -0.17954153 -0.6108009 0.64608854 -0.30514377 0.34714168 -0.20895754 0.40626788 -0.43261057 0.14485712 0.078289784 0.37829474 -0.25330174 -0.4710008 -0.27216256 0.30833802 -0.31980154 0.41091454 0.3521481 0.2514596 -0.6376314 -0.41542593 -0.41412047 0.5751862 0.08832128
minecraft:cave_air -0.1087904 -0.6151639 0.0093366 0.14199272 0.27081853 0.32377416 -0.09580471 -0.18348584 -0.3828524 0.20771465 0.07775934 -0.5112704 0.20410034 -0.20472415 0.27841747 0.7568982 -0.89040756 0.23669556 -0.6858045 0.3670803 -0.45396513 -0.5302046 0.56844765 0.19620119 0.4924568 -0.33161077 0.44282696 0.07086485 0.4773434 -0.5856261 0.12835032 0.041662745
minecraft:coal_ore -0.19699334 -0.5788042 0.5304298 -0.122868456 -0.5897225 -0.14749986 -0.12809603 -0.5890291 0.4623303 0.67780066 -0.03238229 -0.5893733 -0.27839425 0.5085531 -0.09901473 0.4586721 -0.092481524 -0.15832323 -0.6127185 0.50359154 0.36580878 -0.6966595 0.26446164 0.069072805 -0.17736426 -0.35296634 0.40250945 0.416534 -0.49684435 -0.27887017 0.32958096 0.666866
minecraft:iron_ore -0.295118 -0.52556354 0.51913476 -0.37987053 -0.79373246 0.12746093 0.2686343 -0.07461033 0.3468614 0.7675566 0.4934112 -0.16450821 -0.58211136 -0.07297553 0.8502453 0.5989596 -0.4794738 -0.35822564 -0.3200115 -0.1310036 0.38973755 -0.10528753 0.12812667 -0.7635678 -0.23263754 -0.19897527 0.21052186 0.13494553 0.66177386 -0.25743508 0.46527785 0.04078057
minecraft:dirt -0.45690653 0.06334721 -0.32024103 -1.0027827 0.12920868 -0.4353732 0.34574 -0.7530592 0.40848494 -0.0066222604 0.33079836 -0.6553443 0.4497415 0.35516363 -0.24834791 0.107219584 -0.6265317 0.33247462 -0.016572267 0.06030676 0.09411574 -0.3312799 0.2255946 0.042853538 0.14639217 0.12243711 0.7487794 0.0047355876 0.7924324 -0.31454232 -0.06033894 0.45387924
minecraft:andesite -0.2666432 -0.4455253 -0.22539385 -0.484081 -0.5631739 -0.1381639 0.6174189 -0.23024067 -0.31595844 0.82718307 0.31586823 -0.4677109 -0.31004307 0.44279537 0.7096018 0.45607784 0.1888734 -0.3215163 -0.6152772 0.5778251 0.27457073 -0.2252085 -0.271584 -0.4194162 -0.13186207 -0.471186 0.48607236 -0.44052896 0.35154533 -0.50360984 0.115853526 0.51280373
minecraft:gravel -0.5779617 0.39188233 0.023573318 -0.978373 -0.4693183 0.46889365 0.041610423 -0.5911737 -0.2161469 0.7405656 -0.07596554 -0.027931096 0.5572554 0.6721709 0.660373 0.5074731 0.405289 -0.3543351 0.3223929 0.5185074 0.5198522 -0.3856282 0.548571 -0.6924558 -0.3154535 -0.36100706 0.60180473 0.48914295 0.49790972 0.06862656 0.14660779 0.07180085
minecraft:sandstone -0.92546 0.45850682 0.71214 -0.16393346 -0.5380165 0.21521738 0.70702076 -0.24683324 0.59634924 0.28826058 0.55000967 -0.11784692 -0.11403689 0.98010784 0.8938244 -0.03755986 -0.25659403 -0.8893012 -0.51290643 0.46806964 -0.04627277 0.299314 0.12307483 -0.62404114 0.19111083 -0.2744217 -0.13973604 0.10212467 -0.34050527 -0.033568628 0.16340427 -0.011475947
minecraft:grass_block -0.50498676 -0.44415772 -0.491353 -0.39284322 0.3280939 0.41659448 0.50318575 -0.41265562 0.24167222 -0.37707165 -0.2761897 -0.7022159 0.622702 -0.5607631 -0.5278253 -0.44055757 0.26665244 1.2126688 0.771901 -0.62958807 -0.27833325 -0.31277126 0.18590696 0.4150675 0.35159704 0.47000003 0.80996525 -0.4645161 0.17774126 -1.2364138 -0.4077483 0.8663901
minecraft:oak_leaves -0.2390578 -0.81913054 -0.2656534 -0.01789573 -0.403124 0.4963142 0.15811864 0.16013724 -0.91025865 -0.5329787 0.4142979 0.062489733 1.0969323 -0.8122195 -0.4232532 -0.6648438 0.56676215 1.1574568 0.7775315 0.289055 -0.68664914 -0.7719357 -0.12874895 -0.39717397 -0.18202274 1.076791 0.35837775 -0.64417726 -0.47808686 -0.6522197 0.6180565 -0.13589154
minecraft:lily_of_the_valley -0.30484453 -0.5018912 0.17989881 -1.2597965 0.054664966 -0.057714928 0.17213503 -1.0467666 -0.11811111 -0.70846677 0.65844727 -0.8098278 0.69114566 -0.9151993 0.03202609 -1.2226851 0.0051051355 0.60763216 0.30796656 -0.69443846 -1.3134427 -0.37263918 0.3676972 -0.13118526 0.8786926 1.2552481 0.7031373 -1.2228528 0.03800893 -0.0031219774 0.09124985 0.1145855
minecraft:sand -0.5502927 -0.12802133 1.0768348 0.17491482 -0.47598878 1.1053488 1.18972 0.27782813 0.085618176 0.012390693 -0.006316791 -0.021811971 -0.30615288 0.058178734 0.9012655 -0.48045793 -0.260293 -0.18647659 -0.69535315 0.5862721 -0.59747833 -0.13670248 0.27146 -0.46670988 0.75888026 0.2625447 0.04277562 -0.17962936 -0.54994696 0.041542526 -0.21694519 -0.1710391
minecraft:oak_log -0.32856828 -0.31668344 -0.5047602 -0.17199428 -0.26548412 0.38792497 0.27396744 -0.07053385 0.0102372635 -0.77912366 0.63930637 -0.024638535 1.0471364 -0.318674 -0.44465944 -0.7056258 0.38935235 1.1013411 1.0274166 0.09451551 -0.23888049 -0.70216733 -0.35934547 -0.20125033 -0.017124053 1.0987754 0.11806922 -0.81393874 -0.12327489 -1.5046237 0.3897373 -0.016890768
minecraft:birch_leaves 0.0935883 -0.6285819 0.7096373 0.39437786 -0.47697484 0.24985103 -0.13152687 -0.1511401 -1.3474065 -0.18421301 0.23627765 -0.03995878 0.7190841 0.049417548 -0.29348147 -0.45330536 0.8700867 1.5663282 0.5666038 -0.6381566 -0.7430531 0.3057402 0.6818015 -0.51982516 -0.49384522 0.6720555 0.390259 -0.59682363 -1.0597863 -0.18332653 0.580952 0.4622785
minecraft:dead_bush -0.6437457 -0.51285356 0.8440502 0.19549441 -0.03769883 1.3909239 0.7532028 0.14749147 -0.96933734 -0.645466 -0.57743585 -0.30668005 -0.16766453 -0.85759383 0.9193288 -0.5737314 -0.20105033 0.009533846 -0.6230744 -0.17937803 -1.3957587 -0.2657402 0.5353286 -0.1476372 1.1745754 0.6257042 0.41418412 -0.7482908 -0.7939985 -0.060055565 -0.10902677 -0.081483446
minecraft:grass -0.09966407 -0.65360665 0.032129653 -0.48117867 0.3151622 0.24722666 0.09981481 -0.5090594 0.10090765 -0.4709081 0.24512261 -0.59864074 0.5490914 -0.95428675 -0.33958727 -0.4177245 0.3857028 1.0060519 0.4817726 -0.44504222 -0.63734543 -0.36138126 0.55712986 0.04087628 0.569418 0.4216658 0.8448864 -0.2660987 0.2137125 -0.5441485 -0.17419238 0.062346198
minecraft:birch_log 0.12939146 -0.3957744 0.66187644 0.14453548 -0.13737538 -0.14074838 -0.16613762 -0.26524293 -0.26539913 -0.1885247 -0.032773063 -0.0115695195 1.1690484 0.20627221 -0.22995274 -0.6752983 0.42455247 1.3528037 0.5131364 -0.8697934 -0.67004204 0.30724284 0.7245874 -0.14741969 -0.04810136 0.5797428 0.3023787 -0.73815125 -0.08509893 0.022044659 0.39010426 0.90392673
minecraft:cactus -0.88211465 -0.06655889 0.89835864 -0.01909439 -0.026960352 1.0617746 1.0496476 -0.012159932 -0.21116488 -1.1751873 -0.051101245 -0.33835375 -0.19028023 -0.379096 0.7996822 -0.80330163 0.15371655 -0.17893822 -0.0011134367 -0.3440827 -0.7001203 -0.06380041 0.14425041 -0.27508003 0.77701604 0.48849243 0.11583504 -1.2107441 -1.8424503 0.056019895 0.14561293 0.0415056
minecraft:water -0.2993389 -0.34224397 -0.20708328 0.31832764 0.54368407 0.3976346 0.082842626 -0.33032286 0.54323274 0.50000906 -0.20929454 -0.4576163 -0.6150559 -0.37589693 -0.20472771 1.2984291 -1.9547241 -0.016424328 -0.37000597 0.14304389 -0.49371693 -0.835226 0.8209761 0.24353647 -0.45829365 -0.4859832 0.51049316 1.1952088 0.9189573 -0.50397223 -0.054005664 0.6281683
minecraft:dandelion -0.20976225 -0.3413344 0.17569642 -0.7872141 0.1664175 0.031298824 0.2455604 -0.3787811 -0.10870842 -0.70963913 -0.08095997 -0.9660196 0.48672938 -1.1177546 -0.10325309 -0.42727014 0.5668705 0.9272497 1.0344726 -0.59690124 -0.82160753 0.013763624 0.40749305 -0.06251297 0.5266346 1.4140971 0.95372045 -0.23141259 0.11556382 0.043944545 -0.16815175 0.22327866
minecraft:lilac -0.26518077 -0.10731604 0.15740752 -0.994634 0.101934135 0.094804294 0.36539719 -0.9463306 0.065112494 -0.9406788 -0.011519925 -1.0799717 0.19535339 -0.9772836 0.17057037 -0.8038662 0.40389314 0.5019556 1.0903614 -1.2025326 -0.37408635 -0.4213372 0.21665086 -0.15855303 1.1827942 -0.20147707 0.6298652 -0.109050155 -0.024958193 -0.12202932 -0.19822326 0.28214398
minecraft:peony -0.31641313 -0.4108959 -0.09998817 -0.5622054 -0.16133638 0.12034693 0.23564388 -0.6142836 -0.5029586 -0.5172615 0.52322686 -0.3191412 0.9255566 -0.21553102 -0.36468777 -0.8568025 -0.05702896 1.0282226 0.9126186 -1.0366948 0.2108452 0.17738155 0.039173573 -0.10127895 -0.10564966 1.1266052 0.14314187 -1.1822473 -0.27657092 -0.19011898 0.17348245 0.7510353
