2 32
minecraft:sandstone -0.17148261 0.21921152 0.23388131 0.24128036 -0.19330113 -0.22282876 -0.18102649 0.23141496 -0.24407314 -0.1914322 0.19723801 -0.25627214 0.15089248 -0.24292001 -0.16490318 -0.27324596 0.2140273 0.18503298 0.18143 0.16084845 0.16596095 -0.19307326 0.26901665 -0.19311944 -0.2008282 -0.18332785 0.1762447 0.21826307 -0.25031567 -0.1864748 0.21298324 0.23212229
minecraft:dirt 0.17660896 -0.18116875 -0.22190487 -0.23576662 0.19506094 0.22913553 0.1557701 -0.22929288 0.212429 0.17442332 -0.1873905 0.25950274 -0.20329049 0.2039791 0.19694903 0.2298862 -0.20996423 -0.20128472 -0.1867046 -0.16351649 -0.15389128 0.2371225 -0.23565064 0.21530062 0.22517343 0.17494652 -0.17530164 -0.20449246 0.24488312 0.17334904 -0.18290834 -0.26179096
