1 32
minecraft:sandstone -0.005211741 -0.013653431 -0.01740653 -0.01937521 -0.018408194 -0.0042559057 0.016756155 0.008993827 -0.024031995 -0.0137924645 0.0026340205 -0.025780119 -0.026374873 -0.022567272 0.029443529 -0.02813338 0.00061350176 -0.015776932 -0.009289053 0.010166548 0.019742623 0.0005395822 0.029992213 0.029569693 0.027087841 0.019048344 0.005830273 -0.028468676 0.0062444643 0.0022164974 -0.0080088 -0.027449321
