2 32
minecraft:dirt 0.020306004 -0.049305663 -0.033236377 -0.039615106 0.0021002556 -0.024812391 0.03393654 0.03703236 -0.04282304 -0.0509578 -0.044966456 0.029874925 -2.2389975e-05 0.01227328 -0.022987125 -0.050287694 0.022309253 0.013032929 0.031941626 -0.02992939 -0.008922705 0.0019080277 0.03821843 -0.035946846 -0.043051083 -0.0061214925 -0.011554791 0.0009241771 0.010926453 0.029263267 -0.0037042506 -0.039876338
minecraft:air -0.036412653 0.026997741 -0.00879441 0.041946575 0.027828043 -0.003215905 -0.004322838 0.0026616289 0.01521383 -0.009353051 0.027082281 -0.022021038 -0.041640554 -0.008350619 0.04235106 0.02216087 -0.018152434 -0.049391154 -0.0152810635 0.038715098 -0.02705947 0.009421186 -0.023400143 0.04824271 0.020060023 0.010420279 0.047790844 -0.0104685305 -0.010333124 -0.02239634 0.012158719 0.03959044
