14 32
minecraft:stone -0.35461348 0.41886967 -0.1299726 -0.22731844 0.18748307 0.36731973 0.35718384 0.3059144 0.42842025 -0.4176042 0.4146333 0.21634689 0.09286172 -0.39065108 0.46756172 -0.17410666 0.34203804 -0.26528072 0.18817016 -0.4393681 -0.367199 0.20517756 0.28302085 -0.37135538 -0.0974287 -0.06745389 -0.20690635 -0.43779084 -0.4036175 0.4092303 -0.29256275 0.3140609
minecraft:iron_ore -0.6229979 0.3877952 -0.27026927 -0.54245913 -0.44158956 -0.045028254 0.4182419 0.56833243 0.101243965 -0.36960483 1.1687653 0.24815586 0.07468437 -0.10759966 0.55570465 0.11028663 0.57345986 -0.0044717663 0.0904711 -0.53216463 -0.19754565 0.21030869 0.48639435 -0.15339556 -0.45061314 0.6365718 0.1973184 -0.485287 -0.634925 0.42544422 -0.23111653 0.48666266
minecraft:granite -0.41438255 -0.20496598 0.53693116 -0.4304 -0.27923685 0.17395116 0.37987998 0.4081872 0.48329756 -0.03567969 0.76198566 -0.35842147 0.4313256 -0.766232 -0.097348794 0.27340186 0.42674392 -0.32777885 0.16680883 -0.38735512 0.15016218 0.44989204 0.48261264 -0.6169979 0.47307923 -0.1051481 -0.505925 -0.48557204 -0.45027712 0.43452245 -0.33371902 0.3206228
minecraft:andesite 0.21850996 0.47538072 0.44583556 -0.34683987 0.26398817 0.40606558 -0.4430638 0.3886767 0.32143986 0.114340395 0.7514713 -0.28095198 0.44517806 -0.5451108 0.5409496 -0.22069569 0.44831765 -0.15149899 0.16210116 -0.3816791 -0.5418973 -0.23010151 0.48213667 -0.46406183 -0.29643753 0.46621466 0.2758555 0.23831646 -0.4810746 0.35924646 -0.57738644 0.12644199
minecraft:diorite -0.19378847 0.44623077 0.2567405 -0.51428926 -0.22967969 0.40841287 -0.32889357 -0.18465866 0.5227125 -0.51772654 0.532952 0.55672354 -0.048295934 -0.40060177 -0.34291866 -0.5153942 0.5268025 -0.27962214 0.030920664 -0.4741834 -0.35616374 -0.1405736 -0.081077784 -0.42774323 0.22743295 0.61055505 0.19031836 -0.45658916 -0.62442553 0.4761006 0.09891886 0.4819449
minecraft:sandstone -0.35511017 0.38061038 0.36037603 0.43186322 -0.22349958 0.14678738 -0.38630572 -0.13814776 -0.0074401335 -0.44368845 0.39451033 0.28133205 0.6205819 -0.31771922 0.46614328 -0.37657952 -0.052994676 -0.24974395 0.49616462 0.17211153 -0.22474732 0.26770747 0.40288815 0.049752608 0.39419556 0.3985717 -0.3733738 -0.6186486 -0.46005276 -0.082689896 -0.5964671 -0.43876144
minecraft:sand -0.08519385 -0.25888133 -0.37151164 0.090168186 0.2879673 -0.09456657 -0.3303954 -0.44198498 0.07395581 -0.3273213 -0.16227639 0.6994935 0.53321874 0.23849675 0.24061415 -0.46947366 -0.48687744 -1.0141302 0.46642444 0.64336574 -0.032706786 0.62511885 -0.060182616 -0.0013392587 0.3181879 0.46098447 -0.5417219 -0.2881011 0.28817058 -0.6768165 -0.29156414 -0.14313874
minecraft:air 0.20824039 -0.7291203 -0.47826684 -0.24865732 0.5516573 0.15449886 0.23534723 -0.7751246 -0.29945698 0.42082754 -0.6583032 0.6833853 0.5357111 0.72038776 -0.46602693 -0.6477694 -0.9222868 -0.51665026 0.6147793 0.71524966 -0.12290932 0.5397356 0.0664447 0.4192132 -0.23950379 0.7001399 -0.5822712 0.37927955 0.6934814 -0.54539967 0.4530389 0.2781889
minecraft:dirt -0.6762985 0.688717 0.59871215 -0.52643734 -0.4320874 -0.10787277 0.39679495 -0.27955925 0.41072476 -0.240119 -0.0071515897 0.7351597 -0.27584234 -0.0009677331 -0.14460239 0.13059105 -0.12313997 -0.29378226 0.6573566 -0.4513251 -0.2309687 -0.16542542 0.44109407 0.105508484 0.49633795 -0.16505106 0.19436 -0.46206766 -0.51039326 0.52778 -0.55427986 0.4010091
minecraft:coal_ore -0.11786166 0.62023664 -0.050329737 0.20269276 -0.023200367 0.42267606 -0.078020036 0.16460027 0.0977722 -0.46544936 -0.16535011 0.53657734 0.49463728 -0.6745421 -0.088002436 0.1943026 0.46666864 0.105206594 0.4835716 -0.14237937 -0.743293 -0.24980849 0.49540514 -0.5059816 -0.08798211 -0.36773923 -0.5155917 0.026095921 -0.59247965 0.2974473 -0.677998 -0.6576318
minecraft:cactus -0.19605625 -0.41471434 -0.4641382 0.0013833806 0.52147985 -0.082465336 0.029641716 -0.54988784 -0.3340133 0.32689688 -0.58995306 0.58655316 0.5295294 0.51761895 -0.27302176 -0.5687746 -0.5179392 -0.4941507 0.5572762 0.4042186 0.22930299 0.481103 -0.36660174 0.38577145 0.45622483 0.5813841 -0.5330857 0.22689962 0.47362202 -0.4171616 0.2588716 0.04054445
minecraft:dead_bush -0.15189806 -0.51842475 -0.43389595 0.015252143 0.5347462 -0.0714926 -0.0069375774 -0.6625847 -0.2363001 0.3349395 -0.65267485 0.69780177 0.65489334 0.61542076 -0.1965832 -0.6701924 -0.6957956 -0.5644344 0.6352115 0.47102192 0.20557767 0.5531966 -0.41421577 0.44324747 0.25746998 0.66923696 -0.6346876 0.2217367 0.5381523 -0.45139337 0.22227323 -0.0025883857
minecraft:cave_air -0.1688037 0.6190883 0.51983005 -0.64961284 0.49795517 0.6659119 0.5071357 -0.06778773 0.794235 0.08455796 -0.21676561 -0.33075488 -0.060539197 -0.9204695 0.49049965 0.39860603 -0.043576717 -0.5980143 0.066227935 -0.6842012 -0.69992465 -0.16758305 0.114874005 -0.61182183 0.295414 -0.33707014 -0.08458463 -0.019736988 0.22008196 0.73422724 -0.47858948 -0.42718482
minecraft:gravel 0.3747498 0.5053686 -0.5137214 0.47609827 0.65290433 0.56975967 0.3024761 0.91302574 0.47104064 -0.7506938 0.018546708 -0.29984382 -0.24318275 0.14425784 1.3817326 -0.48881432 -0.38625446 -0.49825618 -0.09108358 -0.61977154 0.34366375 0.18764924 0.731432 0.3757897 -0.6922008 -0.15837634 0.45768705 -0.7063253 -1.0620733 0.61760056 -0.42175043 0.84477943
