17 32
minecraft:stone 0.26568604 0.4887313 0.47911096 -0.22506791 0.3276104 0.22059314 0.38036945 0.37531453 0.36017406 0.5693487 -0.38426766 -0.17862423 0.33594987 0.28753373 0.25602987 0.09526541 -0.26814505 0.20171766 -0.32829714 0.4546073 -0.46920246 -0.4568251 -0.5536442 -0.24875043 0.32264265 0.41348097 0.495286 -0.100348115 0.46656394 -0.23385489 0.3292904 -0.43345153
minecraft:cave_air 0.51054406 0.24132934 -0.32094142 -0.36268604 -0.079137124 -0.36132255 0.24800827 0.30490798 0.053456012 -0.39790472 0.17625812 -0.3844086 0.41869316 -0.039740093 0.3641618 0.2598918 -0.4966097 -0.3744879 -0.1784095 0.44996575 -0.31302306 -0.1154814 -0.19638659 -0.4453519 0.5670547 -0.26772115 0.36198705 -0.20092767 -0.06945075 -0.4771838 -0.1917034 -0.20869568
minecraft:andesite -0.16621402 0.5100324 -0.10310957 0.099235274 -0.044928286 0.52800375 0.5355204 -0.38490328 0.45128155 0.42106515 0.14074244 -0.45299426 0.3988198 -0.017916521 -0.2573937 0.35513327 -0.40529567 0.075693496 -0.60132784 0.62578136 -0.505809 -0.50606513 -0.5442327 0.11604441 -0.30789274 0.6949833 0.6868361 -0.28505486 0.014364185 -0.324719 0.5052803 -0.70300823
minecraft:dirt -0.2240079 0.5080152 0.42359355 -0.68065006 -0.28186178 0.43153644 -0.33746842 -0.21731034 0.51779157 0.32311925 -0.11902287 0.2777651 -0.25681368 0.5117651 0.5406264 -0.31672987 -0.4267925 0.5387175 -0.06342838 -0.06451191 0.30160007 -0.55326647 -0.62706876 -0.27453092 0.26932803 -0.18516965 0.18724126 -0.54734737 0.68913424 -0.14124772 0.062885426 -0.822341
minecraft:diorite -0.03246778 0.59312403 -0.11639135 0.2843909 0.51459146 -0.21983634 0.62784576 -0.058440007 0.029530428 0.5475085 -0.57291055 -0.1949588 -0.029698031 -0.26756248 0.47883332 0.3692514 0.27846035 0.3412243 0.08493496 0.06528106 -0.5623497 -0.039479584 -0.5454155 -0.4462172 0.11712586 0.6190075 0.74420285 -0.3376734 0.5764403 0.18498985 0.32884324 -0.61246973
minecraft:granite -0.36936212 0.020467848 0.303463 -0.27721074 0.30902305 0.0034794966 0.4817769 0.2124171 0.4468412 -0.42183602 -0.5021263 -0.41873854 0.2030883 0.17693871 0.56041414 -0.08587169 -0.2787391 0.11208105 -0.7551576 0.5336291 0.13470204 -0.51780856 -0.18343556 -0.5543381 -0.21228811 0.5930635 0.7356052 0.012000263 0.55528694 0.3877885 -0.08039811 -1.0913737
minecraft:coal_ore 0.24411993 -0.30384174 0.19958247 -0.29437143 -0.12987052 0.48688334 0.41937166 0.3895189 0.15398917 0.4337589 -0.4698314 0.44639 -0.46422407 -0.3697434 0.092845164 0.37263685 -0.15470076 0.24038695 -0.5770555 0.6271596 -0.57057875 -0.44830185 -0.29417875 0.018056825 0.014522656 0.53498375 0.5961851 -0.45370498 0.5813371 -0.27307293 -0.020278169 -0.67545736
minecraft:sandstone 0.38664645 0.26039088 -0.28463036 -0.50784403 0.48016733 0.4229907 -0.20690475 -0.30989534 -0.21443668 -0.33871192 -0.021024607 0.2925029 -0.33106706 0.67350006 0.2218966 -0.25933567 -0.466463 -0.20725863 -0.45364583 0.4558167 -0.37871104 0.29651377 -0.35489908 -0.26763162 0.43319577 0.6217755 0.36989948 0.3488346 0.44708166 0.24402224 0.5097118 -0.3805085
minecraft:sand 0.80861926 -0.092259094 -0.5780185 -1.3568751 0.5810062 -0.13117021 -0.48814514 -0.54750216 -0.4955843 -0.566971 -0.12418634 0.15529913 0.014641858 0.5268485 0.030480245 -0.17661278 -0.6126457 -0.25711888 0.23630671 0.35697508 0.22194767 0.50159925 0.10595728 -0.043584757 0.67184633 0.15496305 0.42368415 0.08243419 0.26726004 -0.47392762 0.61671996 0.18241648
minecraft:iron_ore 0.07690027 1.1442668 0.38874936 -0.36735362 -0.16994083 0.5444388 0.4791429 0.32686216 0.3966 0.104572624 -0.4513886 -0.346054 0.37047082 0.29799286 0.15663232 0.2262251 0.15264045 0.32581523 -0.6372152 0.22080645 -0.5511636 -0.31479767 -0.7328084 0.03410236 0.0077312104 0.69733435 0.021041423 -0.31713527 0.23442777 0.17207019 -0.15398715 -0.4471565
minecraft:air 0.6124262 -0.41338786 -1.0507115 -1.5402944 0.30840638 0.26800123 -0.6677904 -0.82274306 -0.83503014 -0.9026122 0.40505353 -0.29940996 -0.47656107 0.56222135 0.30255935 0.32226977 -0.47070816 0.22186665 0.4344068 -0.3261681 0.4479101 0.6739053 0.40857428 -0.30950087 0.51546746 -0.39401433 -0.36463097 -0.24752042 -0.378514 -0.44204974 0.5143352 0.4562156
minecraft:cactus 0.014339185 -0.0140504 -0.017899055 -0.0048844726 0.022234477 0.011067277 -0.01349024 -0.020486215 -0.009028072 -0.017154763 0.008840883 -0.002799093 0.010566188 0.000371637 -0.015523395 0.0069331494 -0.011033396 0.009294449 -0.0033367395 0.009841381 -0.0059493366 -0.019234607 0.02025667 -0.018717537 -0.0060979067 -0.005765135 0.001340494 -0.005401497 -0.0029594046 -0.0043323915 0.0110605 0.006494903
minecraft:gravel 0.020179007 0.045912087 0.21230988 0.087486275 -0.04573019 -0.09396995 0.46165845 0.31512633 0.37413552 0.10825544 -0.50785565 0.2535342 -0.516667 0.53448683 -0.027149005 0.4440712 -0.3170606 0.052480645 -0.9257408 -0.06951831 -0.70728797 -0.2709556 -1.0448902 -0.6338408 0.49905798 -0.077009596 -0.0188001 0.43988612 0.02569114 0.40697312 0.50006354 -1.3183869
minecraft:dead_bush 0.6675316 -0.52609485 -1.0404181 -1.7535682 1.6327815 -0.04159134 -0.74264026 -1.3460627 -0.78539705 -0.68527824 -0.1934467 -0.0794266 -0.108236715 1.058608 0.013115438 0.018881083 -0.679446 0.10854075 0.7085485 0.15139285 0.43218416 0.6820438 0.49826527 0.03540899 0.60201013 -0.07947212 -0.17392644 -0.1939285 -0.11631772 -1.0292625 0.9001619 0.54936504
minecraft:water 0.4144432 1.3008193 -0.40006834 -0.17250648 0.10325398 -0.32417026 2.1346095 0.39963132 1.182527 0.43722314 0.6775829 -1.6140504 0.82939696 -0.26318198 0.25710264 0.48186052 0.12876983 0.22782005 0.33938318 0.43004927 -0.6387617 -0.9838495 -0.5689677 -0.25797814 0.5766258 -0.5157658 0.951909 -0.38124746 -0.32164556 -0.7190023 0.40699863 -0.22097068
minecraft:lava 0.7129943 0.7289175 -0.06727128 0.30204988 -0.10855104 -0.5091041 1.1412958 0.97435963 -0.42785174 0.52211183 -0.38362503 -0.5659741 0.57666564 -0.523518 0.61779004 1.1138875 0.2068428 -0.28576675 -0.054605205 0.46209773 -1.1172884 -0.01949341 -0.18783797 -0.7066478 0.020443339 -0.17350808 -0.01635387 -2.180382 0.42832553 -0.73045284 -0.3461464 -0.03787493
minecraft:grass_block -0.0659263 0.07784512 -0.1630183 -0.8986389 0.19193023 -0.19333409 -1.4860718 -1.1072606 0.23904559 0.052455444 0.06203173 0.64752513 -0.33557683 1.2708277 0.7812069 -0.80717325 -1.0999248 0.74098563 1.1839179 -0.2944975 1.0778656 0.00613249 -0.14071454 0.5272702 0.89891845 -0.91449803 -0.37837464 -1.233421 0.6170187 -0.76063085 -0.27679893 0.27506402
