2 32
minecraft:sandstone 0.0052905967 0.043541107 0.028160453 -0.026724301 -0.00957437 -0.015594167 0.02079729 -0.034408096 -0.032790642 -0.006108281 -0.03744507 -0.012843112 0.051585767 0.026324177 0.019546887 -0.020699931 0.03387176 0.016499968 -0.03363042 0.0220775 0.022047121 0.0446042 -0.048388038 -0.026773937 0.0095730135 0.020234209 -0.0040658517 -0.013364579 0.0086582005 0.034713663 -0.027923383 0.009548239
minecraft:air -0.0038558068 -0.032188047 -0.03026909 0.008558226 -0.022979787 -0.007196755 0.009309955 0.0041196495 0.0036468324 -0.005017751 0.0078162905 0.03178277 0.0072838 -0.02268348 -0.036105774 0.036768883 0.012194974 -0.026695186 0.018496558 0.0021965883 -0.007879129 -0.050788015 -0.002050548 0.033982854 0.033572342 -0.02429448 0.034173645 0.0022236302 0.034557767 -0.0057130284 0.045307554 -0.037806015
