2 32
minecraft:dirt -0.050723318 -0.031934153 0.03398034 -0.0062956926 0.008298817 0.04326023 0.004494342 -0.015372655 -0.021991678 0.0045699994 0.015762983 -0.009745608 -0.033900656 -0.02675712 0.041408546 0.050042406 0.04823554 0.02679591 0.017687347 0.0073955986 0.011379454 -0.010158292 -0.050186306 0.022074841 0.008857494 -0.0008154665 0.0010881936 0.007952559 0.019824825 -0.029895728 0.03644945 -0.04555693
minecraft:sandstone 0.029486848 0.030136392 -0.0026685775 0.046268404 0.0009591749 -0.050312407 -0.037122488 0.05009575 0.042993445 0.050833333 -0.030707726 -0.005114853 0.049150318 0.02870843 -0.016181225 -0.008681012 -0.01447483 -0.029562002 -0.011187891 0.00077165745 0.009666532 -0.005463145 0.036604714 -0.044226427 -0.0016458592 0.04267424 0.039008617 0.014010838 -0.004419571 0.03768186 -0.015103395 0.011959068
