11 10
minecraft:stone -0.07621325 0.16386712 -0.23405954 0.09702556 -0.25086108 0.21556528 -0.039977364 -0.12228559 0.10332958 -0.057381142
minecraft:sandstone -0.096868046 0.13637385 -0.2309673 0.17224592 0.051841605 0.14847656 -0.067970596 0.08259471 0.018978912 0.17457588
minecraft:sand 0.10939101 0.11880867 -0.09265558 0.2225273 0.08049033 0.21657704 -0.20880279 0.21715003 -0.23100396 0.21327691
minecraft:air 0.21484521 -0.030618826 0.1088923 0.15897202 0.21979539 0.05054489 -0.2410241 -0.097155385 -0.2439087 0.22199892
minecraft:dead_bush 0.22237943 -0.0076410673 0.22370498 0.20796826 0.07102799 0.17546764 -0.11547485 -0.049380608 -0.19616663 0.09804574
minecraft:cactus 0.17553481 -0.012721308 0.059697133 0.24336779 0.12378709 0.07320326 -0.16675037 -0.11318684 -0.2481473 0.17267267
minecraft:dirt 0.12672572 -0.076432176 -0.12557973 -0.084121585 -0.08760078 -0.19407724 0.11126785 -0.19606498 -0.18924057 -0.21226384
minecraft:grass_block 0.15613735 -0.24282162 0.0019139863 0.034169905 -0.16026944 -0.2755742 -0.1763145 -0.09078958 -0.23874587 -0.18758696
minecraft:oak_leaves 0.07575788 0.13742192 0.08418074 0.21111082 0.18302506 -0.15546957 -0.24081789 -0.21192093 -0.19010347 0.22149487
minecraft:grass 0.10827067 -0.20007882 0.19161582 0.07890939 0.10783931 -0.05241307 -0.15722144 -0.21924877 -0.19642584 0.03316637
minecraft:oak_log 0.14610581 0.068562984 0.10291355 0.16488257 0.13313246 -0.24652013 -0.23599537 -0.18988113 -0.044571854 0.20733437
