1 32
minecraft:dirt -0.014105365 0.0123314215 -0.017286928 0.012190921 -0.0034099557 -0.017132882 -0.0053780302 -0.0055258684 0.0041520596 0.011715405 0.024863511 0.024832029 0.005624868 0.018224947 0.0036515892 -0.0028226562 -0.026008923 -0.030648861 0.0051892735 -0.019452697 0.011554528 0.0045430176 -0.014361657 -0.0108004585 -0.01586388 -0.0065318123 0.015102405 -0.00568074 -0.00095781125 0.0010789881 -0.024777832 0.0088172555
