1 32
minecraft:dirt -0.0072981734 -0.009282932 0.021153262 0.013087816 -0.024041079 -0.007251297 0.028429333 0.018504867 -0.00923973 0.01686628 0.0019332415 -0.025178589 -0.027947102 0.015306205 -0.0073420396 -0.00022345933 0.01749737 0.016107837 -0.01422276 0.01988703 0.02026722 -0.020045502 0.010513006 -0.008796603 0.011238976 -0.013568945 0.025808034 0.014218749 0.015152098 -0.020524926 0.0015492362 -0.02540901
