2 32
minecraft:dirt 0.00680527 -0.023032393 -0.014063286 0.015400072 0.011447903 -0.038167525 -0.0156220365 -0.0007791153 -0.039240725 0.00699861 0.008682933 -0.032365672 0.034314103 -0.029863602 0.025496103 -0.00884994 -0.012295787 -0.037014004 -0.0069604055 -0.021715637 0.0011655192 -0.027987432 0.00092252175 0.0275141 -0.021695927 0.0056503676 0.016454743 0.031139823 -0.037560232 -0.004449715 0.001300646 -0.009161206
minecraft:sandstone -0.025920806 0.010914007 -0.011496383 0.00972082 -0.013400148 -0.018225053 0.038855847 -0.0013669021 0.027654277 -0.0013294006 0.003900565 0.033316456 -0.030818844 0.03390509 0.014313723 0.0008171793 0.018811986 -0.016256845 0.007965261 0.004170443 0.012443882 0.031514432 -0.02150232 -0.0077112326 -0.024695374 0.013329631 0.013374208 -0.035367653 0.034674145 0.012574052 -0.020061474 -0.011223991
