1 32
minecraft:sandstone -0.0043556206 0.0031483248 -0.0309528 -0.017469296 -0.024935003 0.021364607 0.018114429 0.0025745071 0.020123169 -0.021171987 -0.010987353 0.02646086 0.019422188 -0.030064575 0.03065566 0.007120848 0.008012518 -0.023477433 0.0049038157 -0.00799378 -0.0060812198 -0.020128783 -0.023879725 -0.011964686 0.021334153 -0.015037276 -0.0065061795 0.0053536855 -0.021854527 0.02344604 0.015674513 0.00790113
