6 10
minecraft:stone -0.15161677 -0.102994815 0.21787873 -0.06862354 0.06456084 0.12887771 0.14601265 0.20897047 0.24701108 -0.15946622
minecraft:sandstone 0.16377518 -0.24038303 0.23311363 0.21207397 0.1067577 0.14371948 0.16202879 0.12277528 0.18186004 -0.058796953
minecraft:sand 0.14865197 -0.124257855 0.16751815 0.058997992 -0.15236641 -0.16293564 0.10421362 0.2968862 -0.08264376 0.10490678
minecraft:air -0.11804113 0.13005914 0.1327327 0.01863 -0.2177707 -0.17228468 -0.1094363 0.039974578 -0.17915818 0.12506737
minecraft:dead_bush -0.10534573 0.21129732 0.050371584 0.14935458 -0.2437106 -0.14315404 -0.19618873 0.19386788 -0.08051678 0.22624576
minecraft:cactus -0.050483186 0.2550844 0.046791226 0.1183507 -0.05761901 -0.2332003 -0.18178199 0.08605444 -0.2223506 0.20189665
