19 32
minecraft:stone -0.24596174 -0.26477173 -0.32142562 -0.39820325 0.60445195 0.27965975 0.2956207 0.50357085 0.22286716 -0.47082356 0.09187933 -0.19226189 0.6838011 0.5355008 -0.412718 -0.33758503 -0.2907424 0.22169462 0.48939857 -0.27439046 -0.24295272 0.32624185 -0.40898386 -0.75306255 -0.5555837 -0.23446856 -0.2281641 0.3977605 0.7007752 0.624639 0.19696836 -0.55780965
minecraft:granite 0.33984646 -0.50623584 -0.13617744 -0.52682716 0.5315624 0.6577486 0.37644795 0.4190297 -0.2577413 -0.56487846 0.44377065 0.0677105 -0.3257318 0.5417551 -0.5640924 0.24781281 -0.5182179 -0.11659549 0.54750264 -0.48100144 0.11385442 0.25473252 0.30417192 -0.49443817 -0.37458065 0.10220096 0.04793933 0.4742736 0.6423812 0.6427841 0.45087937 -0.4865928
minecraft:andesite 0.3710256 -0.61764205 -0.113388434 -0.37569433 0.6609353 0.8927396 0.39401984 -0.3511568 0.11499329 -0.5846164 -0.3221091 -0.3751301 0.4455779 0.5130651 -0.55541676 -0.52510405 -0.34524518 0.3748112 -0.17435886 -0.25138333 -0.52052987 -0.25590834 0.46254897 -0.6731555 -0.5499814 -0.44459048 -0.3589087 0.60726726 0.6948315 0.55495024 -0.26656136 -0.5060721
minecraft:coal_ore 0.35330057 -0.46394897 0.11095023 -0.0635612 0.62438226 0.54423696 0.16449976 0.5741453 0.25452447 -0.56016195 0.03023356 -0.407872 0.5313558 -0.23826703 -0.6151048 -0.32673645 -0.8216162 0.50121796 0.30852774 -0.15819104 -0.34313336 0.31567124 -0.010430106 0.018357802 -0.23548101 -0.24746464 -0.22374086 0.40184754 0.92161167 0.44576633 0.37747163 0.41286784
minecraft:diorite -0.45377058 -0.6125244 -0.5795377 0.09766067 0.7934782 0.601808 0.35673073 0.24472119 -0.09681216 -0.48111838 0.39168584 0.18749751 0.38530043 0.45373142 -0.5284383 -0.65139997 -0.42009506 -0.42548847 0.5462675 0.21195477 -0.4057678 0.379921 0.12405224 -0.79237574 -0.5933721 0.21772881 -0.40401685 0.50483376 0.8546268 -0.24065368 -0.18720606 -0.34157214
minecraft:gravel -0.5157351 -0.9352245 -0.4989867 -0.52617496 -0.03684458 0.034196798 0.54475594 0.42627236 -0.19249879 -0.6111631 -0.3962076 0.2654084 0.38878396 0.5748247 0.39752054 0.11196486 -0.2337801 -0.5563315 0.91119057 -0.48537785 -0.21347873 -0.29315293 -0.5495963 0.02276227 -0.9156906 -0.48605284 -0.38179275 0.28119317 1.2993888 0.8084373 0.08960448 -0.5064874
minecraft:dirt 0.00631399 -0.08602633 -0.654757 -0.4842918 0.5690787 0.31700712 0.34805736 -0.2310804 0.32953212 0.057297725 -0.24226685 -0.5416096 -0.14586805 -0.14581943 0.18416278 -0.80145967 0.115824014 -0.43036112 -0.1612339 -0.86620796 0.04103322 -0.09113628 -0.47936827 -0.3455185 -0.63884115 -0.02982416 -0.035981134 -0.1673267 0.33007112 0.23519827 0.5938853 -0.05940925
minecraft:iron_ore -0.38920557 -0.5013935 -0.15643956 -0.30926988 0.5367969 0.5536365 0.40827397 0.28718325 0.2069319 -0.20021342 -0.34127378 0.08402028 0.42476332 0.49764273 -0.61601835 -0.18162763 -0.16944687 0.35232326 1.1013005 -0.38167587 -0.39297497 0.7594748 -0.15235613 -1.001264 -0.10022108 -0.38947624 -0.15951353 1.1147546 0.0055492967 0.4979695 0.55930173 -0.83728087
minecraft:grass_block -0.012964904 0.67985505 -0.6131759 -0.5052109 0.040956985 0.5838601 0.5774505 -0.2694609 0.59798414 0.83427024 0.43245718 -0.50630164 -0.17356986 -0.3571726 0.48859853 -0.48938328 0.18674216 -0.2783332 -0.5056904 -0.3844496 0.17899401 -0.83693546 -0.7745996 -0.40113923 -0.18957645 -0.11705611 0.66694313 -0.48952654 -0.16665506 -0.12888193 0.4730076 0.88702565
minecraft:air -0.3565914 0.5012669 -0.30960482 -0.28193733 -0.37033042 0.3240928 0.37232965 -0.7027175 0.5990647 0.53317994 0.34368107 -0.3936438 -0.8353736 -0.64339095 0.39083096 -0.3637318 -0.32220095 0.41137263 -0.58902526 -0.33395308 -0.32841054 -0.40716597 -0.36062077 0.48305285 0.439662 -0.32357293 -0.43685463 -0.6409143 -0.5456243 -0.49199322 0.52038366 0.5447427
minecraft:grass -0.084522784 0.62667346 -0.38805765 -0.1559212 -0.13533497 -0.14491016 0.3125087 -0.7547496 0.6471665 0.5754946 0.3278959 -0.4398698 -0.6346027 -0.51144475 0.38881868 -0.3609339 -0.0034226617 -0.34300068 -0.52171105 -0.2639063 -0.014354984 -0.9418715 -0.54335684 0.16771615 -0.16942404 -0.17270388 0.06497358 -0.60565144 -0.43417698 -0.33125064 0.4372074 0.9211758
minecraft:birch_log -0.13907465 0.92335373 0.006492472 -0.16425458 -0.2386012 0.29924327 0.37627158 -1.3485117 1.3604323 -0.25119913 -0.12872069 -0.2836751 -0.9078466 -0.733637 0.6438943 0.09776947 0.039740194 0.410014 0.2485881 0.03411625 -0.13987179 0.021922454 0.0081655085 0.35179874 0.14039625 0.22137907 -0.6196227 -0.737698 -0.40180397 -0.25941488 -0.0874194 0.5687756
minecraft:dandelion 0.2571882 0.42595714 -0.52693015 -0.6277712 -0.19930592 0.31140065 0.019494796 -0.5819276 -0.13962646 1.0318974 0.12581134 -0.19910373 -0.14206941 -0.93547124 1.6003779 -0.7412892 -0.26741236 -0.5244772 -0.37340826 -1.035945 -0.2592341 -0.27166584 -0.30216348 0.078446254 -0.017314445 -0.19325714 0.3513127 -0.4537276 -0.40508747 -0.6134336 0.62695163 0.3825872
minecraft:birch_leaves -0.4909802 0.41353562 0.11067539 -0.20701538 -0.9419235 0.4061168 0.37461445 -1.2398899 0.3785305 -0.29687557 0.27439305 -0.44039252 -0.72926396 -0.33473223 0.5241313 0.40730956 -0.38256294 0.75711447 0.2862193 0.0010762077 -0.51261914 -0.053598616 0.16331099 0.81048334 1.1090587 0.04302439 -0.64936066 -0.91319907 -0.8819726 -0.48386046 -0.24996822 1.2071402
minecraft:oak_leaves -0.5290844 -0.114420734 -0.3331722 0.24156733 -0.57028824 -0.15930106 0.3654964 -1.1754204 0.43707788 0.6385397 0.53368884 -0.42680648 -0.7951712 0.12956078 -0.07415312 0.3541807 -0.09773245 0.4386051 -0.46889699 -0.15207556 0.018064307 -0.6005925 -0.34432638 0.5908987 0.700635 -0.35912964 -0.30953887 -0.9063354 -0.8082879 -0.017442752 0.441137 1.1578968
minecraft:oak_log -0.4178832 -0.108896635 -0.3350305 0.21451072 -0.34078872 -0.17290619 0.6221568 -1.0676383 0.9536358 1.0058292 0.3525368 -0.31026435 -0.8560657 0.12097258 -0.06666755 0.09934246 0.19217603 0.2287747 -0.8531335 -0.15748654 0.16904177 -0.49617326 -0.45786107 0.2651921 0.3309833 -0.30753127 -0.098125905 -0.7963951 -0.41227537 0.19897042 0.5867885 0.7491506
minecraft:cave_air 0.53437597 0.4365033 -0.24678048 -0.38181743 1.4703081 -0.37134403 0.036026604 0.57963747 0.08308823 -0.7926825 0.70199823 -0.32078227 0.49141937 0.31033197 -0.8060446 -0.13383974 -0.38589665 0.6727502 -0.61085296 -0.41402382 0.4702348 0.08206887 -0.35824248 -0.81565845 -0.5730289 0.30638292 -0.26011428 -0.49852344 0.61237913 0.48512998 0.03994015 -0.38916832
minecraft:lilac -0.25064364 0.26452088 -0.5662202 -0.14629638 -0.4014452 -0.34891945 1.5804186 0.6493521 1.6725516 1.1857512 0.31854784 -1.3584615 -0.15815862 -0.25895983 0.0053323233 -0.21012473 0.12891132 0.21623895 -0.7434805 -0.23171489 1.1976092 -0.7146677 -0.4695823 0.7153892 0.38779974 -0.31377712 -0.6606568 -0.16845351 -0.38070711 -0.8809024 0.35173064 -0.35534403
minecraft:water 0.27158487 0.37569287 0.0050778734 -0.5068505 0.4593164 -0.25145486 0.14100102 1.6425276 -0.09308166 -0.7611101 0.83805126 -0.5487724 1.1818815 0.44954973 0.007005241 0.10912316 -0.45960173 1.7527817 -0.61517805 -0.2707453 0.42643696 1.1379149 -0.88353235 -0.38623002 -0.40674087 -0.09808306 -0.44078138 0.076247334 0.29582095 -0.07875111 -0.11613997 -0.33043814
