23 32
minecraft:stone 0.6840021 -0.3764937 -0.29656133 -0.24424064 -0.36379898 -0.56408834 0.16886808 -0.37438443 -0.40039256 -0.35913846 0.13655081 0.38380635 -0.21329206 0.21438599 -0.22826636 0.38279387 -0.2625764 -0.47115576 0.22171481 0.39542297 -0.46204618 -0.4383898 0.09534855 0.29183072 -0.3518767 0.52207947 -0.33887908 -0.33762795 -0.4312157 -0.37351954 0.2409762 0.2453184
minecraft:coal_ore 0.87766623 -0.27636835 -0.67651224 -0.4697735 -0.06267378 -0.46536705 0.4178864 -0.6949141 -0.5464518 -0.25707325 0.51471186 0.38038796 -0.3947566 0.39070535 -0.26304018 0.11159462 -0.25506303 -0.10243917 0.3113252 0.16157943 -0.6080437 0.3036944 0.47071472 0.2693186 -0.6222137 -0.25679225 -0.0664743 0.26698396 0.36141697 -0.36373723 0.305303 0.09113893
minecraft:diorite 0.054772884 -0.40565288 0.10536043 0.41494635 0.16712308 -0.63323843 0.4632249 -0.68370956 -0.5328405 -0.56514007 -0.19154473 0.4297861 0.36836272 0.35101387 0.30771327 0.42712596 -0.5177918 -0.7263304 0.08214686 0.46624872 -0.66713166 0.18459319 0.30757323 0.067432925 -0.50577205 0.3316047 -0.5371146 -0.02020848 -0.48423323 -0.012361149 0.2542318 0.18413052
minecraft:cave_air 0.827454 -0.36718726 -0.50978386 -0.508635 0.30497572 -0.54230034 -0.100127116 -0.17112243 0.006485939 0.12414599 0.09403657 0.55879766 -0.59039193 0.49543846 0.055430997 0.4859436 0.36788097 0.18141672 -0.37659347 0.65473825 -0.1215514 -0.5509109 0.59435856 -0.02911983 -0.61161375 0.38840824 0.03827831 0.27146834 -0.67568433 -0.50785804 0.4534285 0.04452629
minecraft:andesite 0.75468415 -0.5398967 0.031797532 -0.37623546 -0.026201604 -0.6149866 0.48009965 0.087109305 0.1550412 0.37039348 0.406407 0.09272968 -0.37173793 -0.26916257 -0.42881364 0.6351487 -0.5449146 -0.5689224 -0.41337535 0.5531096 -0.6264227 -0.0015671137 -0.04922199 0.014498396 -0.4474489 0.45591128 -0.4339615 0.25954267 -0.46799812 -0.47126555 -0.30063963 0.19774765
minecraft:granite 0.5410756 -0.37787372 -0.4810152 0.44414932 -0.27415383 -0.4412253 -0.104766145 -0.618475 0.1726105 -0.39801958 -0.1815833 0.4065567 -0.4441054 0.28026736 -0.3661919 0.20490986 -0.5938266 0.10519869 -0.30167317 0.38505495 -0.6283624 0.44305846 0.42556956 0.42170888 -0.5455933 0.41715395 -0.37059942 -0.59994644 -0.5851045 -0.37682015 -0.41913334 0.46047533
minecraft:gravel 0.47177622 -0.8179376 0.18093158 -0.11869951 -0.6243982 -0.57901734 -0.1592073 -0.2738991 -0.2532117 -0.17589618 -0.016057206 0.73577696 0.24458814 0.6596452 -0.48901686 0.25050113 0.11861296 -0.022554638 -0.6088395 1.014912 -0.6940026 -0.57890236 0.7972222 0.45601732 0.3388854 -0.23820452 -0.07728161 0.6192878 -1.3194206 -0.13201253 0.6631892 0.5767642
minecraft:iron_ore -0.448674 -0.27415484 -0.21308136 -0.3672103 0.30835772 -0.15324612 0.26489508 -0.25417152 -0.27096248 -0.42004514 0.3627597 0.6511024 -0.4575499 -0.26976103 -0.3219464 0.44307443 -0.28463888 -0.45094693 0.5516976 0.29568198 -0.5093759 -0.23310366 0.24664788 0.4075158 -0.6244892 0.51743126 -0.5151001 -0.5336964 -0.5894841 -0.4802699 0.40188295 0.39929724
minecraft:sand 0.60577404 0.14845948 -0.7885605 0.22024654 0.22176798 0.16661127 0.3073172 -0.58906317 -0.53383726 0.329446 0.39679652 -0.33297163 0.22385763 -0.35254714 0.4230742 0.51051116 -0.7415552 -0.4506468 -0.19327854 -0.10478384 -0.6075789 -0.21174036 0.35852385 -0.21288806 0.060021274 -0.20089963 -0.61922485 -0.34865102 -0.54318404 -0.071337044 -0.51451564 0.27110893
minecraft:air -0.37131673 -0.25869977 -0.22458476 -0.2983127 -0.3264174 0.29704762 -0.2697431 -0.23959658 -0.29695535 0.2550307 0.3209269 -0.46931836 0.36896455 0.413451 0.31658185 0.30888632 -0.32289472 -0.22838351 -0.48630938 0.16784558 0.36062917 -0.5025085 0.56849205 -0.21577176 0.37744796 -0.3574708 -0.23095675 -0.41600323 -0.2143719 -0.22980407 -0.3738925 0.54857236
minecraft:dead_bush 0.10048545 0.004542408 -0.77161396 0.0816599 0.035019126 0.5836145 0.07412022 -0.81251884 -0.75081503 0.75985783 0.6246714 -0.7584229 0.5063712 -0.10231751 0.73236006 0.8056613 -0.7424169 -0.5710928 -0.9025131 -0.08878528 -0.250721 -0.4505818 0.84414315 -0.8796578 0.5451027 -0.9404005 -0.28884622 -0.5334946 -0.5538023 0.10034459 -0.8342983 0.7950589
minecraft:cactus -0.18603371 -0.031572334 -0.6096744 0.053838227 -0.0047555957 0.6003156 0.030446595 -0.8169062 -0.704482 0.97362334 0.27094734 -1.2801493 0.028205002 -0.23914598 0.62281775 0.7311756 -0.5219227 -0.35702735 -0.30344537 0.09473399 0.09741219 -0.60122633 0.60374904 -1.2823762 0.7300164 -1.3025981 -0.12785508 0.20796566 -0.60033506 0.026937865 -0.8816473 0.75214964
minecraft:dirt 0.3020673 -0.55500597 0.065388896 -0.4672334 0.39553562 -0.4790426 -0.05057287 -0.48999867 -0.50582576 -0.5792469 0.64547676 -0.32872346 0.25886947 0.7274288 -0.5150664 -0.05365062 0.11516685 -0.34095615 -0.26294708 0.2714693 0.09508442 0.21227802 0.022771526 -0.14455585 -0.5715521 0.686317 -0.5550896 -0.45300713 0.10355369 -0.42651156 -0.27533743 -0.035337992
minecraft:sandstone 0.59458053 0.09612003 -0.4465756 0.3470178 -0.36809215 -0.5854004 0.52325493 -0.6793171 -0.6110161 0.17105389 0.0978872 -0.22629733 0.22432108 -0.27654773 0.21896294 0.695537 -0.8828714 -0.91582996 0.4880162 -0.16714719 -0.7550505 -0.47927862 0.1626736 0.54934186 -0.058866274 0.47727466 -0.59379023 -0.4350028 -0.11916955 -0.36762026 -0.18508837 0.52795243
minecraft:brown_mushroom 0.7165786 -0.38690946 -0.7341187 -0.62713915 0.11274236 -0.52043116 -0.58059597 -0.76398844 0.5831213 -0.50002015 0.31683323 0.5832949 -0.69126207 0.7717154 0.0963163 0.41407636 0.2272924 0.8769354 0.2703033 0.33354956 -0.513107 -0.38453764 0.71627873 0.7709375 -0.61568403 0.4726603 -0.049674537 0.24161714 -0.38415948 -0.56166244 0.4925464 0.2809847
minecraft:grass_block -0.7713484 -0.77722687 -0.11519061 -0.49385944 -0.3917552 0.78026587 -0.8771977 -0.44558674 -0.5046886 -0.07141679 0.72521555 -0.5298357 0.73808014 0.41185537 -0.13060161 -0.55744517 0.7020725 -0.70791197 -0.60247236 0.7736085 0.9719966 0.33518824 -0.9284209 -0.96448725 -0.004383951 -0.21098885 -0.8600183 -0.7190149 -0.049892053 -0.93650407 -0.62527865 -0.30780113
minecraft:grass -0.79848564 -0.7991634 -0.41232172 -0.547326 -0.60707223 0.70555 -0.82655746 -0.23645872 -0.3388058 -0.04241277 0.58352107 -0.45166075 0.6483686 0.5669096 -0.28400508 -0.15041672 -0.05242529 -0.20205122 -0.6600548 -0.13615756 0.95322776 -0.018093048 -0.041433617 -1.1292291 0.17718159 0.025209947 -0.53780234 -0.38791505 -0.15270723 -0.05881874 -0.5919468 0.1110505
minecraft:birch_leaves -0.9161141 -0.13995215 0.2073435 -0.57343197 -0.8293853 0.8839075 -0.7037911 0.23752224 0.45651895 1.07825 0.6410113 -0.5175467 0.74847424 0.50661707 0.7267235 0.34647474 -0.5005386 -0.49438128 0.33485132 0.6587759 0.6743833 -0.32098588 0.47094584 0.4402787 0.8340115 -1.1120175 -0.15377235 -0.63756967 -0.4553607 0.07319946 0.41915876 -0.012416342
minecraft:oak_leaves -0.94757533 -0.5766879 -0.3348949 -0.7256889 -0.5180976 0.79850876 -0.87634534 0.39312077 0.3939398 0.4641789 0.5701742 0.25083363 0.6910184 0.6158993 0.48130968 -0.41901067 -0.51008594 -0.28714553 -0.5730014 -0.25366485 0.7090787 -0.3559782 0.46428233 -0.6208506 0.5644084 -0.6679091 -0.45712793 -0.45937252 -0.036496 -0.3697933 0.13217741 0.4847219
minecraft:birch_log -0.59275496 0.02357028 0.22705595 -0.9189203 -0.344964 0.57596886 -0.83258164 -0.03261312 -0.037430614 0.326501 0.4062273 -1.1639584 0.77689636 0.93328553 0.3834495 0.323417 -0.15501489 -0.3581722 0.28460327 0.8871993 0.8223499 0.18062642 0.49620622 0.31288114 0.35660604 -0.02583494 0.025586136 -0.6158882 -0.3826016 0.2124855 -0.11762484 -0.29200318
minecraft:oak_log -0.47844645 -0.7238745 -0.31337345 -0.76153636 -0.45318604 0.43843034 -1.1583741 0.25151056 0.22270569 0.21621484 0.5949552 0.20020999 0.6793565 0.64315546 0.35930887 -0.43859324 -0.12124143 -0.32140678 -0.682884 -0.32794967 0.59249324 -0.15455258 0.079624556 -0.9270444 0.1988108 -0.36878106 -0.4866403 -0.6685594 0.108463585 -0.50209117 -0.055898223 0.44296396
minecraft:lilac -0.67495626 -0.32786003 -0.00056535384 -0.53147125 -0.4957211 0.56678003 -0.65958536 -0.15037824 -0.16469412 0.3327126 0.55728954 -0.7475401 0.7083548 0.6678883 0.14381076 -0.15844463 0.0113307685 -0.2573241 -0.013338442 0.2421772 1.0633185 0.03803384 -0.062700875 -0.13824005 0.2675276 -0.10304306 -0.34606966 -0.7460627 -0.25135615 0.012137332 -0.15915546 -0.24869439
minecraft:poppy -0.026026348 0.0039566616 -0.0247301 0.013458115 0.009768181 -0.00019475259 -0.016695587 -0.0074393246 0.0066028666 0.011192624 -0.024284488 -0.019228496 -0.02408526 0.020389602 -0.028588053 0.0038727752 -0.008529892 -0.025266105 0.027951637 0.0005830495 0.020216512 -0.0034815425 -0.018265318 -0.0122440895 0.006937169 -0.011895917 -0.008188912 0.0129055595 -0.0025873894 -0.026217824 0.017366737 0.02338886
