15 32
minecraft:stone 0.3619495 -0.47454056 0.44708672 -0.4681394 -0.24475566 -0.17607622 0.33831385 -0.3823841 -0.37780014 0.37307322 -0.41711107 -0.46937776 -0.3980802 0.38224545 -0.35685045 0.19099087 0.3622671 0.5113485 -0.37946358 -0.45233664 -0.35840592 -0.29178965 -0.17106162 0.29061198 0.46375737 0.08742675 0.1746168 0.17683253 0.1982092 0.4537602 0.33246604 0.26903766
minecraft:granite -0.07000588 -0.03681308 -0.1861726 -0.56441665 0.38510522 -0.33771983 0.11451861 -0.3901767 -0.053706333 0.40055114 -0.49073404 0.2891701 -0.41740802 0.49612817 -0.6389756 -0.26009232 0.42670873 0.6529056 -0.37119997 -0.44925618 -0.37188482 -0.36028245 -0.4122627 -0.3520744 0.45305586 0.3340374 -0.2267521 0.29834595 0.40662107 0.39116317 0.27816412 0.4295156
minecraft:diorite 0.5259772 -0.6149582 -0.36425623 0.16231716 -0.32696956 -0.37791505 0.40271232 0.07437928 -0.5699039 -0.096265316 0.18178515 -0.3584323 -0.4573243 0.027463607 -0.68180716 -0.21956597 0.47555262 0.7245672 -0.53714263 -0.40245223 -0.30148676 -0.44219455 0.14429805 -0.2414549 0.41277775 -0.34616324 -0.1353656 0.34408513 0.53483236 0.43967077 0.19462211 0.38599592
minecraft:andesite 0.40290794 -0.5459253 0.121061176 -0.54234016 0.11374966 -0.52102137 0.3917258 -0.36758363 -0.47635725 0.31076914 -0.2499567 -0.52010775 -0.62057257 0.5225175 -0.6258508 0.07616957 -0.059363127 0.62448484 -0.5146793 -0.5471969 0.06666105 0.17077163 -0.5542272 -0.33964163 -0.30795664 -0.28621054 0.33412114 -0.200792 0.41501296 -0.0030094062 -0.1426534 -0.16834964
minecraft:iron_ore 0.38541418 -0.19455571 0.47293785 -0.43739495 -0.20410259 -0.67264825 0.025299797 -0.2190714 -0.24702762 0.2952547 -0.26253548 -0.4710773 0.20773843 0.60089976 -0.42146996 0.45490417 -0.20287353 0.35192865 -0.079507664 -0.67367923 -0.30846828 -0.5267139 -0.32465228 0.26152295 0.2517062 -0.22058442 -0.2703733 0.32535902 0.62844133 0.6971297 0.1812133 0.5056305
minecraft:gravel 0.55035824 -0.49783942 0.13490957 -0.3566401 -0.0022994436 0.37027544 0.26452944 -0.5387775 -0.58004904 0.5272392 -0.8517759 0.2485492 -0.39340797 0.0783616 -0.8871787 0.6242552 0.44912004 0.25254408 -0.3871292 -0.15790641 -0.33765852 0.1661825 0.31304476 -0.2297563 0.4425411 -0.30040687 0.8219236 0.14162226 -0.064492434 -0.4663592 -0.0348686 0.7129165
minecraft:coal_ore 0.5134568 -0.41791993 0.24953674 -0.46987903 -0.18589951 -0.53284407 0.4262248 -0.28791252 -0.25402883 0.043442834 -0.1144409 -0.4318891 -0.6245622 0.600004 -0.20631431 -0.47199008 0.33169875 0.6202088 -0.31688005 0.48224828 0.39364985 0.04328381 -0.18302216 -0.010122745 0.36094195 0.3049043 0.23131192 0.38697267 -0.18190451 0.58211976 0.42478704 0.4602129
minecraft:dirt -0.3727908 -0.71291333 0.40823162 -0.5354376 -0.3074388 0.15095492 0.37744284 -0.51730335 -0.0929992 -0.055110548 0.14194328 -0.45966983 -0.6438978 0.14119667 0.107229985 -0.35016465 0.4533289 0.96821696 -0.59582573 -0.5229943 -0.41917914 0.0945617 -0.67030346 0.49199206 0.34226242 0.45953625 -0.44705978 -0.3223163 0.58492285 0.82418436 -0.07841382 -0.46963495
minecraft:cave_air 0.49501044 -0.6741897 0.3068269 -0.4662033 -0.006108485 0.26911104 -0.17497005 -0.008516527 -0.61149293 0.40900066 -0.022188663 0.43446285 0.2635819 0.52781665 -0.4470849 0.41659686 0.44539806 0.8408032 -0.3511029 0.16489495 0.32332888 -0.40035787 -0.3698049 0.2899691 0.5483475 0.39707756 0.40358344 -0.1049224 0.5832796 -0.018601768 -0.12551765 -0.029869787
minecraft:sandstone -0.22705562 -0.35649094 -0.31088227 0.16354616 -0.3216876 0.257223 0.3383468 -0.06186147 -0.47828332 0.8632063 0.04871376 0.21913403 -0.72188216 0.47668493 0.45628557 0.110932365 -0.035004392 0.19946536 -0.6024185 0.27691218 -0.676734 -0.7225285 0.057921633 0.6438196 -0.25070524 -0.24867968 -0.27164656 -0.06980056 -0.17652737 0.29626969 0.44122595 -0.41360155
minecraft:sand -0.6547736 0.11490747 -0.7402614 0.7365392 -0.2030045 0.5307212 0.8720245 -0.25634512 0.14122866 0.40010348 -0.20082924 0.78395784 0.21908943 -0.16464785 -0.2151553 0.2415339 -2.3846045 -0.058509458 0.23468184 0.7534919 0.056099236 -0.35180205 -0.028980225 0.5439266 -0.7827651 0.014727942 0.26270968 0.22270907 0.1607965 -0.058241956 0.8501503 -0.41905403
minecraft:air -0.37723187 0.58053696 -0.41932058 0.21892737 -0.9675022 -0.48620442 0.05530767 -0.27250662 0.3188576 -0.20485653 -0.32615757 0.52499706 0.30800256 -0.42331254 -0.29798964 0.86604136 0.014570942 -0.73554486 0.07673686 0.3071048 0.10381169 0.31817415 -0.4784695 0.44512308 -0.34199816 0.42549732 0.47618857 0.6181912 0.39731342 -0.83658195 0.13898736 0.40642005
minecraft:dead_bush -0.6512001 0.87688047 -0.68895906 0.49759853 -0.6649432 0.040829908 0.5716332 -0.025392465 0.64534265 0.015877498 -0.13843092 0.5790822 0.4973893 -0.65908706 -0.20275469 0.6375656 -0.6636057 -0.7120362 0.74276865 0.59261876 -0.2560612 -0.10216737 -0.4185002 0.52801764 -0.59857297 0.4433751 0.4698963 0.6523914 0.2811559 -0.877641 0.44080114 0.16555873
minecraft:cactus -0.6046858 1.2169707 -0.4693881 0.5259352 -0.311173 -0.029367605 0.534719 -0.07935031 0.43822342 -0.1586976 -0.23172547 0.30636302 0.51407164 -0.5675136 -0.20929225 0.54353476 -0.36432767 -0.6580697 0.51228696 0.5452933 0.023943737 0.028962625 -0.30446434 0.34506264 -0.55914706 0.39885595 0.32898176 0.6804045 0.2146911 -0.89367694 0.30105332 0.18831225
minecraft:water 1.2651973 -0.33107266 1.5830886 0.7425592 -0.3765971 0.19271427 -0.024891723 -0.20090166 -0.6718159 0.042019803 -0.3036398 -0.57802063 0.17895965 0.8588203 -0.26493472 1.2571224 1.512468 -0.4118139 -0.48731488 -0.503843 0.5543464 -1.3481605 -0.072081566 0.95799494 0.7892434 1.6773351 -0.014723875 0.17044638 0.23274927 -0.22568816 0.31930742 -0.28745174
