1 32
minecraft:sandstone 0.0100935325 0.00980174 -0.020234363 0.02848206 -0.017187424 -0.008738718 0.024413032 -0.025454892 0.013819496 0.0024442335 0.0057794335 -0.013098207 0.0029845187 -0.02014089 0.022272192 -0.014514446 -0.026497655 -0.018895421 0.021521876 -0.008519227 -0.008661751 0.025977984 0.0087986095 -0.019833848 0.008697559 0.017839348 -0.021813096 -0.016059605 0.008579093 0.02740826 -0.006632504 -0.026692469
