1 32
minecraft:dirt -0.0038941952 0.015716992 0.008616254 -0.029375976 -0.026819201 0.011947598 -0.029705437 0.030383257 -0.0069006234 0.012830449 -0.008527327 -0.007988486 0.02450856 -0.023544803 0.0008287905 0.004800163 -0.03082978 0.011263676 0.030430978 0.025798973 0.0063830875 -0.008585926 -0.017562754 -0.016573388 0.0016340353 -0.013370168 -0.027510433 0.02083251 0.014410645 0.023694608 -0.016755419 0.00091092294
