7 10
minecraft:stone -0.12710184 0.20516333 0.17463268 -0.0016817427 -0.05043318 0.15774754 -0.07268876 0.2551535 -0.18302582 0.20468515
minecraft:dirt -0.20350848 -0.15812455 -0.25303438 -0.2463884 -0.16128117 0.06836384 -0.21969236 0.1445595 0.21166801 0.25269195
minecraft:grass_block -0.15334128 -0.2306771 -0.15880108 -0.15411803 0.101132624 -0.081627876 -0.09564589 -0.24045515 0.23453216 0.123333715
minecraft:air -0.10935657 0.25953552 -0.24240942 0.16272743 0.08855499 -0.22779563 0.18846641 -0.12702042 0.11667284 -0.12943877
minecraft:grass -0.1271749 0.2068837 -0.11267158 -0.17514141 0.09675295 -0.13743381 0.06417213 -0.14029673 0.107492745 -0.19040214
minecraft:oak_leaves -0.18306932 -0.045395423 -0.10469215 0.15803231 0.27196556 -0.091197886 0.23738533 -0.08003818 0.12301818 0.1839954
minecraft:oak_log -0.053322285 -0.11399281 -0.095005065 0.17787372 0.26058668 -0.15221055 0.115677275 -0.18664968 0.15315929 0.1728168
